Language model created by QuickLM on Thu Jul 28 09:43:35 EDT 2016
Copyright (c) 1996-2010 Carnegie Mellon University and Alexander I. Rudnicky

The model is in standard ARPA format, designed by Doug Paul while he was at MITRE.

The code that was used to produce this language model is available in Open Source.
Please visit http://www.speech.cs.cmu.edu/tools/ for more information

The (fixed) discount mass is 0.5. The backoffs are computed using the ratio method.
This model based on a corpus of 219 sentences and 19 words

\data\
ngram 1=19
ngram 2=57
ngram 3=123

\1-grams:
-1.1223 </s> -0.3010
-1.1223 <s> -0.2670
-3.4627 CONTINUE -0.3007
-1.9064 DOWN -0.2430
-1.6054 ELBOW -0.2310
-1.6054 FASTER -0.2670
-1.9064 HIGHER -0.2430
-1.3043 LEFT -0.2044
-1.9064 LOWER -0.2430
-1.4293 MOVE -0.2556
-3.4627 PAUSE -0.3007
-1.3043 RIGHT -0.2044
-1.4293 SHIFT -0.2556
-1.6054 SHOULDER -0.2310
-1.6054 SLOWER -0.2670
-3.1617 SPEECH -0.2670
-3.4627 STOP -0.2670
-1.9064 UP -0.2430
-1.6054 WRIST -0.2310

\2-grams:
-2.6415 <s> CONTINUE 0.0000
-0.6081 <s> MOVE 0.0000
-2.6415 <s> PAUSE 0.0000
-0.6081 <s> SHIFT 0.0000
-2.6415 <s> STOP 0.0000
-0.3010 CONTINUE SPEECH 0.0000
-0.7782 DOWN </s> -0.3010
-0.7782 DOWN FASTER 0.0000
-0.7782 DOWN SLOWER 0.0000
-1.0792 ELBOW DOWN 0.0000
-1.0792 ELBOW HIGHER 0.0000
-1.0792 ELBOW LEFT -0.2430
-1.0792 ELBOW LOWER 0.0000
-1.0792 ELBOW RIGHT -0.2430
-1.0792 ELBOW UP 0.0000
-0.3010 FASTER </s> -0.3010
-0.7782 HIGHER </s> -0.3010
-0.7782 HIGHER FASTER 0.0000
-0.7782 HIGHER SLOWER 0.0000
-1.3802 LEFT </s> -0.3010
-0.9031 LEFT ELBOW 0.0000
-1.3802 LEFT FASTER 0.0000
-0.9031 LEFT SHOULDER 0.0000
-1.3802 LEFT SLOWER 0.0000
-0.9031 LEFT WRIST 0.0000
-0.7782 LOWER </s> -0.3010
-0.7782 LOWER FASTER 0.0000
-0.7782 LOWER SLOWER 0.0000
-0.6021 MOVE LEFT -0.0969
-0.6021 MOVE RIGHT -0.0969
-0.3010 PAUSE SPEECH 0.0000
-1.3802 RIGHT </s> -0.3010
-0.9031 RIGHT ELBOW 0.0000
-1.3802 RIGHT FASTER 0.0000
-0.9031 RIGHT SHOULDER 0.0000
-1.3802 RIGHT SLOWER 0.0000
-0.9031 RIGHT WRIST 0.0000
-0.6021 SHIFT LEFT -0.0969
-0.6021 SHIFT RIGHT -0.0969
-1.0792 SHOULDER DOWN 0.0000
-1.0792 SHOULDER HIGHER 0.0000
-1.0792 SHOULDER LEFT -0.2430
-1.0792 SHOULDER LOWER 0.0000
-1.0792 SHOULDER RIGHT -0.2430
-1.0792 SHOULDER UP 0.0000
-0.3010 SLOWER </s> -0.3010
-0.3010 SPEECH </s> -0.3010
-0.3010 STOP </s> -0.3010
-0.7782 UP </s> -0.3010
-0.7782 UP FASTER 0.0000
-0.7782 UP SLOWER 0.0000
-1.0792 WRIST DOWN 0.0000
-1.0792 WRIST HIGHER 0.0000
-1.0792 WRIST LEFT -0.2430
-1.0792 WRIST LOWER 0.0000
-1.0792 WRIST RIGHT -0.2430
-1.0792 WRIST UP 0.0000

\3-grams:
-0.3010 <s> CONTINUE SPEECH
-0.6021 <s> MOVE LEFT
-0.6021 <s> MOVE RIGHT
-0.3010 <s> PAUSE SPEECH
-0.6021 <s> SHIFT LEFT
-0.6021 <s> SHIFT RIGHT
-0.3010 <s> STOP </s>
-0.3010 CONTINUE SPEECH </s>
-0.3010 DOWN FASTER </s>
-0.3010 DOWN SLOWER </s>
-0.7782 ELBOW DOWN </s>
-0.7782 ELBOW DOWN FASTER
-0.7782 ELBOW DOWN SLOWER
-0.7782 ELBOW HIGHER </s>
-0.7782 ELBOW HIGHER FASTER
-0.7782 ELBOW HIGHER SLOWER
-0.7782 ELBOW LEFT </s>
-0.7782 ELBOW LEFT FASTER
-0.7782 ELBOW LEFT SLOWER
-0.7782 ELBOW LOWER </s>
-0.7782 ELBOW LOWER FASTER
-0.7782 ELBOW LOWER SLOWER
-0.7782 ELBOW RIGHT </s>
-0.7782 ELBOW RIGHT FASTER
-0.7782 ELBOW RIGHT SLOWER
-0.7782 ELBOW UP </s>
-0.7782 ELBOW UP FASTER
-0.7782 ELBOW UP SLOWER
-0.3010 HIGHER FASTER </s>
-0.3010 HIGHER SLOWER </s>
-1.0792 LEFT ELBOW DOWN
-1.0792 LEFT ELBOW HIGHER
-1.0792 LEFT ELBOW LEFT
-1.0792 LEFT ELBOW LOWER
-1.0792 LEFT ELBOW RIGHT
-1.0792 LEFT ELBOW UP
-0.3010 LEFT FASTER </s>
-1.0792 LEFT SHOULDER DOWN
-1.0792 LEFT SHOULDER HIGHER
-1.0792 LEFT SHOULDER LEFT
-1.0792 LEFT SHOULDER LOWER
-1.0792 LEFT SHOULDER RIGHT
-1.0792 LEFT SHOULDER UP
-0.3010 LEFT SLOWER </s>
-1.0792 LEFT WRIST DOWN
-1.0792 LEFT WRIST HIGHER
-1.0792 LEFT WRIST LEFT
-1.0792 LEFT WRIST LOWER
-1.0792 LEFT WRIST RIGHT
-1.0792 LEFT WRIST UP
-0.3010 LOWER FASTER </s>
-0.3010 LOWER SLOWER </s>
-0.7782 MOVE LEFT ELBOW
-0.7782 MOVE LEFT SHOULDER
-0.7782 MOVE LEFT WRIST
-0.7782 MOVE RIGHT ELBOW
-0.7782 MOVE RIGHT SHOULDER
-0.7782 MOVE RIGHT WRIST
-0.3010 PAUSE SPEECH </s>
-1.0792 RIGHT ELBOW DOWN
-1.0792 RIGHT ELBOW HIGHER
-1.0792 RIGHT ELBOW LEFT
-1.0792 RIGHT ELBOW LOWER
-1.0792 RIGHT ELBOW RIGHT
-1.0792 RIGHT ELBOW UP
-0.3010 RIGHT FASTER </s>
-1.0792 RIGHT SHOULDER DOWN
-1.0792 RIGHT SHOULDER HIGHER
-1.0792 RIGHT SHOULDER LEFT
-1.0792 RIGHT SHOULDER LOWER
-1.0792 RIGHT SHOULDER RIGHT
-1.0792 RIGHT SHOULDER UP
-0.3010 RIGHT SLOWER </s>
-1.0792 RIGHT WRIST DOWN
-1.0792 RIGHT WRIST HIGHER
-1.0792 RIGHT WRIST LEFT
-1.0792 RIGHT WRIST LOWER
-1.0792 RIGHT WRIST RIGHT
-1.0792 RIGHT WRIST UP
-0.7782 SHIFT LEFT ELBOW
-0.7782 SHIFT LEFT SHOULDER
-0.7782 SHIFT LEFT WRIST
-0.7782 SHIFT RIGHT ELBOW
-0.7782 SHIFT RIGHT SHOULDER
-0.7782 SHIFT RIGHT WRIST
-0.7782 SHOULDER DOWN </s>
-0.7782 SHOULDER DOWN FASTER
-0.7782 SHOULDER DOWN SLOWER
-0.7782 SHOULDER HIGHER </s>
-0.7782 SHOULDER HIGHER FASTER
-0.7782 SHOULDER HIGHER SLOWER
-0.7782 SHOULDER LEFT </s>
-0.7782 SHOULDER LEFT FASTER
-0.7782 SHOULDER LEFT SLOWER
-0.7782 SHOULDER LOWER </s>
-0.7782 SHOULDER LOWER FASTER
-0.7782 SHOULDER LOWER SLOWER
-0.7782 SHOULDER RIGHT </s>
-0.7782 SHOULDER RIGHT FASTER
-0.7782 SHOULDER RIGHT SLOWER
-0.7782 SHOULDER UP </s>
-0.7782 SHOULDER UP FASTER
-0.7782 SHOULDER UP SLOWER
-0.3010 UP FASTER </s>
-0.3010 UP SLOWER </s>
-0.7782 WRIST DOWN </s>
-0.7782 WRIST DOWN FASTER
-0.7782 WRIST DOWN SLOWER
-0.7782 WRIST HIGHER </s>
-0.7782 WRIST HIGHER FASTER
-0.7782 WRIST HIGHER SLOWER
-0.7782 WRIST LEFT </s>
-0.7782 WRIST LEFT FASTER
-0.7782 WRIST LEFT SLOWER
-0.7782 WRIST LOWER </s>
-0.7782 WRIST LOWER FASTER
-0.7782 WRIST LOWER SLOWER
-0.7782 WRIST RIGHT </s>
-0.7782 WRIST RIGHT FASTER
-0.7782 WRIST RIGHT SLOWER
-0.7782 WRIST UP </s>
-0.7782 WRIST UP FASTER
-0.7782 WRIST UP SLOWER

\end\
